{
  "layers": [
    {
      "activation": 1,
      "biases": [
        -4.55686440158909,
        19.309982788498896,
        -6.707294679615206,
        2.709613504882482,
        -9.525280425007962,
        3.191539218180566,
        -0.988310785850751
      ],
      "cols": 7,
      "rows": 2,
      "weights": [
        [
          9.153608949030762,
          -17.781225582093285,
          11.011147700241942,
          -14.92957109589477,
          2.278233393574547,
          -10.395598702741417,
          -11.299857443864703
        ],
        [
          4.107368883992896,
          -16.289599842410233,
          -6.135833687131404,
          9.134009022778603,
          15.198038870287547,
          -7.55032142253918,
          13.637262193616513
        ]
      ]
    },
    {
      "activation": 1,
      "biases": [
        -3.889831638301227,
        1.4994765545448014,
        2.210443290186104,
        3.062274403371891,
        3.268466065720222,
        -1.8020161331766025,
        -1.8518029501577287,
        2.0631842409609504,
        7.609124379588342,
        -0.28578968987892345
      ],
      "cols": 10,
      "rows": 7,
      "weights": [
        [
          0.40493290208397,
          -0.6735186341414162,
          -1.7390597166939548,
          -1.1854322354708697,
          -1.3419762964755972,
          2.3131403299631406,
          0.22498040734564426,
          -2.2129665060184616,
          -6.0597976318937805,
          3.1217615721888365
        ],
        [
          2.622121877070613,
          -6.160318624153961,
          -6.479862371715454,
          8.009889110674662,
          -6.659573729243173,
          0.06707200539930815,
          3.536681569014704,
          -2.831622853637221,
          -8.639754887028399,
          -1.124812428029387
        ],
        [
          5.882350083247139,
          3.9589211991263094,
          3.2744631715986627,
          -10.670669469049168,
          2.2392871756733395,
          0.8350014771548815,
          3.2464558840942823,
          0.7895953983284494,
          3.0186951476724295,
          -1.6346259218021557
        ],
        [
          1.674635018609404,
          9.064224251401388,
          6.750298467520694,
          -12.03343764868819,
          0.16907551346677938,
          -2.317060293979808,
          -5.954992557227321,
          3.423508972058279,
          5.954943581844799,
          1.3516360505611915
        ],
        [
          4.189393126672245,
          -0.44582199977988285,
          -3.1427249791052057,
          7.400963528509304,
          -5.958809978015088,
          -1.0740706479381872,
          -0.2388416295175232,
          2.420185383084573,
          -2.6908338138890735,
          0.1840506701002627
        ],
        [
          -0.16809755494280232,
          -1.8321160194719976,
          -0.9623932589268315,
          10.474065759659318,
          3.12459728973605,
          6.951423019159156,
          5.803619608121248,
          0.09106282464504252,
          -5.122650392371497,
          -0.7789444148659115
        ],
        [
          -2.3608626916796576,
          -4.05593774661809,
          0.011853064517125674,
          -5.508937774250208,
          7.887154853336208,
          3.5250018060414536,
          4.359235539584221,
          -3.3568659945811268,
          0.6986830394702656,
          -2.0017429087704537
        ]
      ]
    }
  ]
}
